[
  {
    "bias": -1.3436285257339478,
    "name": "Hidden_Layer_Expanded",
    "type": "Dense",
    "weights": [
      1.9556528329849243,
      0.8402351140975952,
      0.8254126310348511,
      -0.4099999964237213,
      0.550000011920929,
      -0.18000000715255737,
      0.27000001072883606,
      0.3100000023841858,
      -0.5199999809265137,
      -0.11999999731779099,
      0.4399999976158142,
      0.2199999988079071,
      0.3499999940395355,
      -0.28999999165534973,
      0.10999999940395355,
      -0.20999999344348907,
      0.15000000596046448,
      0.47999998927116394,
      0.10999999940395355,
      0.23000000417232513,
      -0.33000001311302185,
      -0.15000000596046448,
      -0.41999998688697815,
      0.20999999344348907,
      0.550000011920929,
      0.11999999731779099,
      -0.05000000074505806,
      -0.3100000023841858,
      0.2199999988079071,
      0.4099999964237213,
      0.07999999821186066,
      -0.10999999940395355,
      0.25,
      -0.4399999976158142,
      0.33000001311302185,
      -0.11999999731779099
    ]
  },
  {
    "name": "R1",
    "type": "ReLU"
  },
  {
    "bias": -2.1703338623046875,
    "name": "Output_Layer",
    "type": "Dense",
    "weights": [
      2.685368061065674,
      -0.3199999928474426,
      0.4099999964237213,
      0.2199999988079071,
      -0.15000000596046448,
      0.5099999904632568,
      -0.25,
      0.3799999952316284,
      0.44999998807907104,
      -0.10999999940395355,
      0.28999999165534973,
      -0.33000001311302185
    ]
  },
  {
    "name": "Final_Sigmoid",
    "type": "Sigmoid"
  }
]